Language model created by QuickLM on Thu Nov 13 07:29:04 EST 2014
Copyright (c) 1996-2010 Carnegie Mellon University and Alexander I. Rudnicky

The model is in standard ARPA format, designed by Doug Paul while he was at MITRE.

The code that was used to produce this language model is available in Open Source.
Please visit http://www.speech.cs.cmu.edu/tools/ for more information

The (fixed) discount mass is 0.5. The backoffs are computed using the ratio method.
This model based on a corpus of 19 sentences and 49 words

\data\
ngram 1=49
ngram 2=79
ngram 3=80

\1-grams:
-1.1955 </s> -0.3010
-1.1955 <s> -0.2435
-2.4742 A -0.2996
-2.4742 AFTERNOON -0.2817
-1.4328 AM -0.2786
-2.4742 AND -0.2817
-1.9971 ANNIE -0.2724
-2.4742 ARE -0.2966
-2.4742 BILLS -0.2724
-2.4742 BREAKFAST -0.2724
-2.4742 BUY -0.2724
-2.4742 CAME -0.2966
-1.6291 DELIMAN -0.2566
-2.4742 DINNER -0.2724
-2.1732 DO -0.2966
-1.9971 DOCTOR -0.2966
-2.4742 EVENING -0.2817
-2.4742 FOOD -0.2724
-2.1732 FOR -0.2966
-1.9971 GOOD -0.2966
-1.9971 GRANNY -0.2966
-2.4742 GROCERIES -0.2724
-2.4742 GROCERY -0.2724
-2.1732 HAVE -0.2981
-1.7752 HELLO -0.2771
-2.4742 HERE -0.2996
-1.3603 I -0.2801
-2.4742 IN -0.2981
-2.4742 INTERESTING -0.2996
-2.4742 INTRESTED -0.2996
-2.4742 IS -0.2907
-1.9971 KIMBLE -0.2709
-2.4742 LETTER -0.2981
-2.4742 LOOK -0.2996
-2.4742 MAGAZINE -0.2724
-2.4742 MEAL -0.2724
-2.4742 MORNING -0.2817
-2.4742 NEWSPAPERS -0.2724
-2.4742 ON -0.2966
-2.1732 OUR -0.2981
-2.4742 PARCEL -0.2981
-2.4742 POSTCARD -0.2724
-1.7752 POSTMAN -0.2566
-2.4742 PRODUCT -0.2724
-2.4742 SEE -0.2981
-1.9971 TO -0.2952
-2.1732 WANT -0.2966
-1.4742 WITH -0.2862
-1.9971 YOU -0.2966

\2-grams:
-1.5798 <s> DELIMAN -0.2688
-1.5798 <s> DOCTOR 0.0000
-1.1027 <s> GOOD 0.0000
-0.8808 <s> HELLO 0.0000
-1.5798 <s> HERE 0.0000
-0.7347 <s> I -0.0621
-1.5798 <s> POSTMAN -0.2553
-0.3010 A LOOK 0.0000
-0.3010 AFTERNOON I -0.0621
-0.6435 AM DELIMAN -0.0580
-1.0414 AM DOCTOR 0.0000
-0.7404 AM POSTMAN -0.0792
-0.3010 AND I -0.2840
-0.3010 ANNIE </s> -0.3010
-0.3010 ARE YOU -0.2218
-0.3010 BILLS </s> -0.3010
-0.3010 BREAKFAST </s> -0.3010
-0.3010 BUY </s> -0.3010
-0.3010 CAME TO -0.2218
-1.1461 DELIMAN </s> -0.3010
-0.3680 DELIMAN WITH -0.1461
-0.3010 DINNER </s> -0.3010
-0.3010 DO YOU -0.1249
-0.3010 DOCTOR KIMBLE 0.0000
-0.3010 EVENING I -0.0621
-0.3010 FOOD </s> -0.3010
-0.3010 FOR GRANNY 0.0000
-0.7782 GOOD AFTERNOON 0.0000
-0.7782 GOOD EVENING 0.0000
-0.7782 GOOD MORNING 0.0000
-0.3010 GRANNY ANNIE 0.0000
-0.3010 GROCERIES </s> -0.3010
-0.3010 GROCERY </s> -0.3010
-0.6021 HAVE A 0.0000
-0.6021 HAVE INTERESTING 0.0000
-1.0000 HELLO ARE 0.0000
-0.6990 HELLO DO 0.0000
-0.6990 HELLO I -0.0322
-0.3010 HERE IS 0.0000
-0.3736 I AM 0.0000
-1.4150 I CAME 0.0000
-1.4150 I HAVE -0.1761
-0.3010 IN OUR -0.1761
-0.3010 INTERESTING NEWSPAPERS 0.0000
-0.3010 INTRESTED IN 0.0000
-0.3010 IS DELIMAN -0.0580
-0.4771 KIMBLE </s> -0.3010
-0.7782 KIMBLE AND 0.0000
-0.3010 LETTER FOR 0.0000
-0.3010 LOOK ON 0.0000
-0.3010 MAGAZINE </s> -0.3010
-0.3010 MEAL </s> -0.3010
-0.3010 MORNING I -0.0621
-0.3010 NEWSPAPERS </s> -0.3010
-0.3010 ON GRANNY 0.0000
-0.6021 OUR MAGAZINE 0.0000
-0.6021 OUR PRODUCT 0.0000
-0.3010 PARCEL FOR 0.0000
-0.3010 POSTCARD </s> -0.3010
-1.0000 POSTMAN </s> -0.3010
-0.3979 POSTMAN WITH -0.2041
-0.3010 PRODUCT </s> -0.3010
-0.3010 SEE OUR -0.1761
-0.7782 TO BUY 0.0000
-0.7782 TO HAVE -0.1761
-0.7782 TO SEE 0.0000
-0.3010 WANT TO -0.1249
-1.3010 WITH BILLS 0.0000
-1.3010 WITH BREAKFAST 0.0000
-1.3010 WITH DINNER 0.0000
-1.3010 WITH FOOD 0.0000
-1.3010 WITH GROCERIES 0.0000
-1.3010 WITH GROCERY 0.0000
-1.3010 WITH LETTER 0.0000
-1.3010 WITH MEAL 0.0000
-1.3010 WITH PARCEL 0.0000
-1.3010 WITH POSTCARD 0.0000
-0.7782 YOU INTRESTED 0.0000
-0.4771 YOU WANT 0.0000

\3-grams:
-0.3010 <s> DELIMAN </s>
-0.3010 <s> DOCTOR KIMBLE
-0.7782 <s> GOOD AFTERNOON
-0.7782 <s> GOOD EVENING
-0.7782 <s> GOOD MORNING
-1.0000 <s> HELLO ARE
-0.6990 <s> HELLO DO
-0.6990 <s> HELLO I
-0.3010 <s> HERE IS
-0.3010 <s> I AM
-0.3010 <s> POSTMAN </s>
-0.3010 A LOOK ON
-0.3010 AFTERNOON I AM
-0.3010 AM DELIMAN WITH
-0.3010 AM DOCTOR KIMBLE
-0.3010 AM POSTMAN WITH
-0.3010 AND I CAME
-0.3010 ARE YOU INTRESTED
-0.3010 CAME TO HAVE
-1.0792 DELIMAN WITH BREAKFAST
-1.0792 DELIMAN WITH DINNER
-1.0792 DELIMAN WITH FOOD
-1.0792 DELIMAN WITH GROCERIES
-1.0792 DELIMAN WITH GROCERY
-1.0792 DELIMAN WITH MEAL
-0.3010 DO YOU WANT
-0.4771 DOCTOR KIMBLE </s>
-0.7782 DOCTOR KIMBLE AND
-0.3010 EVENING I AM
-0.3010 FOR GRANNY ANNIE
-0.3010 GOOD AFTERNOON I
-0.3010 GOOD EVENING I
-0.3010 GOOD MORNING I
-0.3010 GRANNY ANNIE </s>
-0.3010 HAVE A LOOK
-0.3010 HAVE INTERESTING NEWSPAPERS
-0.3010 HELLO ARE YOU
-0.3010 HELLO DO YOU
-0.6021 HELLO I AM
-0.6021 HELLO I HAVE
-0.3010 HERE IS DELIMAN
-0.6435 I AM DELIMAN
-1.0414 I AM DOCTOR
-0.7404 I AM POSTMAN
-0.3010 I CAME TO
-0.3010 I HAVE INTERESTING
-0.3010 IN OUR MAGAZINE
-0.3010 INTERESTING NEWSPAPERS </s>
-0.3010 INTRESTED IN OUR
-0.3010 IS DELIMAN WITH
-0.3010 KIMBLE AND I
-0.3010 LETTER FOR GRANNY
-0.3010 LOOK ON GRANNY
-0.3010 MORNING I AM
-0.3010 ON GRANNY ANNIE
-0.3010 OUR MAGAZINE </s>
-0.3010 OUR PRODUCT </s>
-0.3010 PARCEL FOR GRANNY
-0.9031 POSTMAN WITH BILLS
-0.9031 POSTMAN WITH LETTER
-0.9031 POSTMAN WITH PARCEL
-0.9031 POSTMAN WITH POSTCARD
-0.3010 SEE OUR PRODUCT
-0.3010 TO BUY </s>
-0.3010 TO HAVE A
-0.3010 TO SEE OUR
-0.6021 WANT TO BUY
-0.6021 WANT TO SEE
-0.3010 WITH BILLS </s>
-0.3010 WITH BREAKFAST </s>
-0.3010 WITH DINNER </s>
-0.3010 WITH FOOD </s>
-0.3010 WITH GROCERIES </s>
-0.3010 WITH GROCERY </s>
-0.3010 WITH LETTER FOR
-0.3010 WITH MEAL </s>
-0.3010 WITH PARCEL FOR
-0.3010 WITH POSTCARD </s>
-0.3010 YOU INTRESTED IN
-0.3010 YOU WANT TO

\end\
